encog,BasicNetwork,java,3.3.0,1,63638397780106
[BASIC]
[BASIC:PARAMS]
[BASIC:NETWORK]
beginTraining=0
connectionLimit=0
contextTargetOffset=0,0,0
contextTargetSize=0,0,0
endTraining=2
hasContext=f
inputCount=22
layerCounts=1,7,23
layerFeedCounts=1,6,22
layerContextCount=0,0,0
layerIndex=0,1,8
output=0,0,0,0,0,0,0,1,0,0,0,0,0,0,0,0,0,0,0,0,0,0,0,0,0,0,0,0,0,0,1
outputCount=1
weightIndex=0,7,145
weights=0.769483852064081,0.418117394450054,-0.485641323898213,-0.297063300842584,0.31330698583863,0.377332970640986,-0.180322052057361,0.332295496420392,0.716380968919581,-0.191745294893652,-0.0128606442745147,-0.0873915735484144,-0.848193411345238,-0.489993293207266,-0.431547259438837,-0.159804866059757,-0.736010986044675,-1.15380066507453,0.0651407207407197,-1.04401965871714,-0.107736765971183,-0.119023507255847,-0.736637401331096,-0.115368774571438,-0.0455904102936379,0.773616370710835,-0.510137298021999,-0.0499077351829775,-0.480987157400412,-0.653753123847466,0.38014272851646,-0.799785491247345,-0.181480588737205,0.101974470107463,0.426448197844044,0.179575829258938,0.0662096690237786,0.717447159639971,0.188167497998414,-0.606150669126546,-1.28584330229539,0.351998327763582,1.01191491795455,0.842298634012524,1.46194858143104,-0.612159663417233,0.62083821709095,0.967689587181832,0.0893465816747302,1.82566439089834,-0.198339771659472,0.0526544041568201,0.966207662480297,0.212918851552991,0.816319554696901,-0.752536808282509,-0.879456126670682,0.240576741324938,-0.194081716119712,0.14488991086896,-0.473971340491512,-0.620804091577451,-1.00509843044064,-0.838662234476523,-0.0363175675201188,0.910383709533369,-0.635844966544007,-0.192001325137517,-1.06602453237984,-0.334030323418501,-0.732678146331228,0.221186617303471,-1.04013379172042,-0.106458296129331,-0.520507137076234,0.561193977958798,0.549382303677551,-0.47084790735995,0.8778857110835,-0.488965986095963,0.561298877953822,-0.0916710180134927,0.39466808237376,0.594897013005521,-0.380217475357326,-0.573312024147452,-2.58272197093029,0.816659480565318,0.46617287172658,0.925700970991899,1.31274120126611,-2.49878809761692,-1.59196287833412,-0.858276862447121,-0.597787521223285,1.65102756041733,-0.100409160988292,-0.843430476426756,0.126074035442297,0.467194507666577,-0.000843413247279497,0.936297181518149,0.0281676842139654,-0.921271603901207,-0.0361541124048116,-0.257128807462533,-1.20403645985171,-0.827390248230225,1.29271065506659,-0.876752391799476,1.05752129619499,0.861619389021108,0.496437491909535,1.86648468793112,-0.101802075988263,-0.438028879320898,-0.656205380622894,-1.44372636098325,0.469542102655967,0.720773256875425,-0.391678592450919,-0.187941913853145,0.395443139212857,0.343590082754475,-0.0534342951278292,-0.0991710176148421,0.588066307139216,-0.686339775352918,-0.797396016088881,0.66262976095755,1.77659628660647,0.0577261495842108,3.05481848788054,-0.054677402387956,3.93126677008225,-0.704324322824783,0.0135141240215091,0.153840024820478,-0.344138608199149,0.281467476851133,0.163158819041078,0.756128276313611,0.0289773241183875,0.0389149886715482,-0.979380196685096
biasActivation=0,1,1
[BASIC:ACTIVATION]
"ActivationTANH"
"ActivationTANH"
"ActivationLinear"
