encog,BasicNetwork,java,3.3.0,1,63638396072425
[BASIC]
[BASIC:PARAMS]
[BASIC:NETWORK]
beginTraining=0
connectionLimit=0
contextTargetOffset=0,0,0
contextTargetSize=0,0,0
endTraining=2
hasContext=f
inputCount=22
layerCounts=1,7,23
layerFeedCounts=1,6,22
layerContextCount=0,0,0
layerIndex=0,1,8
output=0,0,0,0,0,0,0,1,0,0,0,0,0,0,0,0,0,0,0,0,0,0,0,0,0,0,0,0,0,0,1
outputCount=1
weightIndex=0,7,145
weights=0.853000621242915,-0.955515151822714,-0.842793743052889,0.265350130044553,-0.751719185035545,-0.13213792216598,-0.656847227204986,0.0440203217063193,0.84047364063583,0.424028801463558,-0.737927127507481,-0.736841087107007,-0.111956289555857,-0.596298960780864,0.508820701161782,0.552087573125999,0.210348498639813,-0.0583740952696531,-0.402765471210128,-0.542053534436065,-0.527028004418606,-0.00407318258847722,-0.693178950666068,0.477715281526426,-0.867843919372113,-0.768521684114133,-0.312504817411539,-0.141410502205328,-0.26317046362123,0.145781059351648,-0.621050075451401,-0.122436297648789,0.0556599409578646,-0.29449238502164,-0.71961906725523,-0.516642002163754,0.673143526387002,0.175654989283371,-0.834350760949008,0.629385362206672,-0.363448350393888,-0.698266748198432,-0.00735485973179106,-0.812294848175857,0.293651750913659,-0.507434160219242,0.759511871151399,0.283417251558703,0.0440849731881567,0.683004529067783,-0.88252460206045,0.48890290851188,0.261437274171709,0.832262908030424,-0.962652568687989,-0.118047840482578,-0.183983900204293,-0.249671841622177,0.50168440654021,-0.864843874175494,0.448155713010652,0.292111783890106,-0.693539211383806,0.172037292817625,0.359550702087372,-0.20955304019598,-0.521382613816011,0.378031493806295,0.603840278277099,0.751053087297386,0.686876549239679,0.723571103868806,-0.0152827682976066,-0.610213799220609,-0.335156687225754,-0.290514080454835,-0.667537838997104,-0.687354387569872,-0.11752627096955,0.414634959499647,0.203921991029718,0.12229554966199,0.26942773222431,-0.92454623893115,0.594391959530484,0.911135199438378,0.749308830010383,-0.731329678432704,-0.833736474548344,0.258621375662564,-0.520240869149678,-0.0309564429479449,0.211534721409685,-0.0485580307657635,0.40962664196716,0.632160122335032,0.292826825423551,0.511937954235793,-0.0214129085752242,0.44649350151722,-0.280021010562787,-0.986186658957129,-0.927510864067595,0.705526409533586,0.696109238870493,0.915060655174339,0.801763546560781,0.105326504029951,-0.930696751890097,0.424601901985985,-0.521227310188686,0.905814258337866,0.651834417903719,0.911947051022177,-0.672198172506037,0.478219232278978,0.136445493966548,0.438163203856984,-0.24661798740114,0.961849272233364,-0.311451756074769,0.126465295034677,0.69195406310817,-0.901081064669919,-0.406897408611559,0.921127708592046,-0.711961398698371,-0.386718162049874,-0.35024742565595,0.491706782715259,0.0219252756898876,0.16611256877245,-0.763379008399034,-0.659330185344131,-0.103165853350966,0.539877170482593,-0.933276123336179,0.278509005568227,0.500030294759213,-0.887318636238258,0.881598096285759,-0.869049848927674,0.986206850030556,-0.853697612813533,-0.631582833654984
biasActivation=0,1,1
[BASIC:ACTIVATION]
"ActivationTANH"
"ActivationTANH"
"ActivationLinear"
