encog,BasicNetwork,java,3.3.0,1,63638396199532
[BASIC]
[BASIC:PARAMS]
[BASIC:NETWORK]
beginTraining=0
connectionLimit=0
contextTargetOffset=0,0,0
contextTargetSize=0,0,0
endTraining=2
hasContext=f
inputCount=22
layerCounts=1,7,23
layerFeedCounts=1,6,22
layerContextCount=0,0,0
layerIndex=0,1,8
output=0,0,0,0,0,0,0,1,0,0,0,0,0,0,0,0,0,0,0,0,0,0,0,0,0,0,0,0,0,0,1
outputCount=1
weightIndex=0,7,145
weights=-0.39733553404057,0.126574214591015,0.754999560698142,-0.803569392676037,-0.541674746956493,0.830861973186987,0.188940116752244,-0.625760252547146,0.405937727638252,-1.50802986146079,-0.307242579364627,0.535626207437125,-0.226663686382092,1.57495678340539,1.06557720118613,-0.682315761210145,-0.646354304045302,-0.377846190009302,-0.62449511920774,0.480261866471534,-0.522666329179764,-4.29741001651048,-0.429557490274184,0.52237932457802,-0.20376284286995,0.453487787248129,-0.0457184751175102,-0.196488070364848,-0.260275384998358,0.415957245160287,-1.31386822199381,2.63730304386167,-1.65241598546273,0.313467815843106,1.12093272205357,-2.53620318749836,9.60589230088769,4.51380723466743,-4.60107226441234,-0.784128349131037,-1.40114794405157,-2.68173860227341,-2.77147640633841,-1.38304302998543,-5.7705070911194,1.21067167044085,-2.85968012461407,-3.78437989926735,0.606295593859175,4.00514554739827,0.298157632908178,-0.504826139109866,-0.811332331794037,0.265117292354834,-0.508652140965425,0.790827885394131,-0.553529911243052,0.39375667900877,-0.345616269605527,-0.429685073661138,0.149208113854122,0.184990625049888,-0.851505102958992,0.279561984241358,0.308821392786377,0.281458923963263,-0.615885204765237,-0.2245724927215,0.0882224030404051,0.288648351094678,0.163675399515345,0.397238357085626,0.946062553746258,-0.0346213558435673,0.113105152422586,0.634599807273801,-0.462249126884596,-0.817123571741563,-0.327922484847919,-0.27552446586475,-1.25974573289002,-0.473592379301,1.03668253766745,-1.24299169245242,0.496750670016603,-0.0185570497696386,-0.270648603964333,-0.931927708729047,-0.374650757028923,0.60970315530026,-0.619477691043532,-0.778823187916372,0.0786495912549283,-1.02671835973407,-0.380449752450054,-0.739511889982674,-0.673701708210841,-0.549126728577975,0.856439094830554,0.370285649564828,-2.3256313221347,0.423135860018664,-0.907913526280204,-1.39898049871429,1.21804978292983,-0.703226543209873,1.34177572667588,-0.43830582139658,-0.0786643559369661,-0.578906933584684,-0.171384774537184,-0.474519796740371,0.370189552861678,-0.0579753351761099,-0.0822057593549421,0.031559287500478,-0.134562214650029,0.179670288010152,-0.650612957587657,0.933663063439982,-0.933604170653285,0.524743856351268,0.0367280168677045,0.228001995101328,-0.864854710910012,-0.329611647400183,-0.84690855786455,-0.0331743108561926,-0.21760883827578,0.0536699253841555,-0.380500388959113,0.56433400743657,-0.659906373137512,-0.639051425434295,0.0590319675623322,0.609007445105963,-0.327280299625295,-0.420866152806926,0.416831313010877,-0.206399770908391,0.15044117483849,-0.387076243658601,-0.184163263270182,-0.348458692599056,-0.43442259101644
biasActivation=0,1,1
[BASIC:ACTIVATION]
"ActivationTANH"
"ActivationTANH"
"ActivationLinear"
